function [y1] = bigrgbnet(x1)
%BIGRGBNET neural network simulation function.
%
% Generated by Neural Network Toolbox function genFunction, 22-May-2016 09:27:01.
% 
% [y1] = bigrgbnet(x1) takes these arguments:
%   x = 3xQ matrix, input #1
% and returns:
%   y = 11xQ matrix, output #1
% where Q is the number of samples.

%#ok<*RPMT0>

  % ===== NEURAL NETWORK CONSTANTS =====
  
  % Input 1
  x1_step1_xoffset = [0;0;0];
  x1_step1_gain = [0.00784313725490196;0.00784313725490196;0.00784313725490196];
  x1_step1_ymin = -1;
  
  % Layer 1
  b1 = [-0.12616258827435303;-2.2596903558276957;-0.40395469101635506;-0.15588767558195896;-3.6158262394052221;-3.4194329143861584;3.8220163405111967;2.4295021996670529;1.2864138510876439;0.75969681626180607;1.2568894744278654;-2.1683953373101192;0.35743100788730819;0.31844793375861397;-0.28025576865065127;0.80492043964583682;1.4613491334174959;-0.99804646824809951;1.0131831542948269;-0.28622590825357341;0.015283434081015819;0.30901974589840797;0.92369010380116201;-2.6201721050241153;0.34568740458829728;1.4096043165693886;-0.59252492671761026;0.7356981380653459;0.48146935217922915;0.50004277770014061;-0.41216275055193063;0.1545155592872188;-0.87985182129342354;-0.51309533803768348];
  IW1_1 = [1.6444962857391847 2.1479040861269967 -5.3584556508613588;2.8799803290920778 -0.11085664019321467 -0.083336919224668252;-0.6320351372192915 1.8193030464956434 -1.7074190280736716;1.5315369617021799 2.1028088391359736 -5.0777986948112845;-1.905727741866007 -2.2005094386969586 0.55365001527401014;3.0211476702700737 2.1243212980483155 -0.42092798064901482;1.419776257822593 1.1590092513948378 0.5973803160557527;-0.44615295121902654 0.88123119331239008 1.9837078884749098;-5.0153928600525655 1.8987893577923924 2.6550869957380998;2.153243404282021 -9.5003889414160092 6.3147434560089595;0.86574413519346138 -12.843443094885259 12.006840347580368;2.8225287306230222 -0.030307104004349085 -0.20504502992678203;-4.8744229059113291 9.0928323968992384 -4.8923049083037489;-2.7721965674684066 3.5924732692359727 -0.045107703637051619;5.0650315218667652 -4.2630605261160408 -0.056900005386563;-0.93331534511120018 2.5315889129370293 -1.5401846625888742;-0.99298365715444326 -2.5781997433996522 2.5709901780534175;7.7805756558054249 -9.2268673863616453 2.6020751848579939;-3.736863968665479 4.1871108917967357 -0.51377549958074253;-1.8354056649819586 7.55770845129262 -5.5455233439911158;3.1836822450071223 -6.1555204433155275 2.2490849654753169;-0.40781932420831141 16.905564263870286 -19.384170766586131;7.4089323599081034 -4.7283849805437166 -1.2591888296228069;0.39546856618077431 -0.90334777104564479 -2.2043932039945453;-3.2149580317070572 6.7754212208725475 -2.7190963661903611;1.884682522578899 7.3560068608439719 -9.4375318214783324;0.9593492318312915 1.5371306878332587 -1.9816514110248096;2.5931664475118525 -9.5217098168922316 6.8150688033038387;2.9334668260038632 1.0829651319083491 -2.4804991786571118;4.0882274985812979 -6.9844635651886646 2.6644209443586986;-2.7417314478677151 -1.0866639115437089 2.402287561036176;-2.7259055775764294 3.4732718106198917 0.0583457546524851;-1.9192523683799754 -1.1315178046581931 3.2654254760194821;-0.70394913116212754 1.9322356838641042 -1.8556364722876311];
  
  % Layer 2
  b2 = [-0.023974067397511081;-0.39852769892501216;-2.7507156356938287;-1.1007829982465551;1.5166475655145557;-3.6413027925129811;2.400647391598802;-2.5981493944831748;0.58311809981910767;-2.7305880659776052;-0.25538765970013688];
  LW2_1 = [-7.5835770108892957 0.51176577422602409 8.3323064574509598 8.2579362394765123 -0.075694560308277425 0.18370877063883315 -0.45859490953386428 -6.9157138733774044 -0.045706590953993258 -0.42027504663709092 0.31871916004128958 -0.75374825684987723 -0.17059960081543321 0.32293930101730078 0.069282735433917358 -0.48541879097263596 -0.13931359470053362 0.058857180268798999 -0.084005269748275727 -1.0701714360483945 -0.070414934624587283 0.19083786443844616 -0.06051724340231493 -6.2712103286140319 0.10476336019969278 0.15109679628485556 -1.1392360536225437 -0.33500931036922799 -2.8086234768799616 -0.030814669645850196 -3.3763144502904532 -0.12513051120368443 0.44297918959153854 -7.478315173640004;-1.4191516503040607 -2.3779549582547861 -0.67232218110927655 1.6523238594552812 -0.012362240310518321 -0.32864990680234701 -0.63327396512613843 -0.7976310938333091 -0.0025456098529566748 -0.72888895673396892 -0.17541380570345694 2.7143837546905756 -0.57428617582742014 0.088706876155886599 -0.16963252286241989 0.41162058384546329 -0.61032306513607226 -0.040927754676321017 -0.35160903596314769 1.1174692333313185 3.9569217159886954 0.067349421722975603 -0.010336398345264494 -0.79962906149715574 2.6488085124065588 -0.083931760146661302 -0.64291395175603394 1.6319520048502894 0.55029800863705369 -1.5440457736973328 0.67035202927402771 0.033837559234417065 -0.0017354638417246895 0.12853475017083732;0.14734599193563752 2.7227499065655243 -6.364969657718941 -0.25768065991840361 0.065486021412255083 0.26281746750265739 2.1165471763051635 -0.47871529828898401 -0.10991828280370564 0.69429034058165062 -0.14023507126125725 -3.0571486552472766 0.3442531267394382 -4.7257162725982553 0.52138122584726587 0.41562882597239048 0.58402381929938507 -0.12997552501357373 1.0770129945968081 0.67188242236790596 0.38151456808704237 -0.094637328127708434 -0.053495598519223447 -0.21531186411757114 0.055122827978502834 -0.08196100546672723 0.82849131890536964 -0.21483753648796508 -1.1099084870447242 0.1242680755975062 -1.1864967882939224 4.0315160741187306 0.097478614672691796 5.7651526703865521;-0.88736753584853179 -4.2128025572227408 3.6409480321219192 1.1042198853740386 0.047815393772758341 0.21728476936757352 0.31547149439297306 2.7680445386089305 -0.10429251212672397 0.34974924567974491 -0.046878625618936902 4.320119384538371 0.43677891938707231 1.6621918982815482 0.62108342799432736 -0.4192835722858323 -0.16581869860211332 0.04819030857879001 0.40674094997430971 -0.28569080326479818 -3.8263981913953753 -0.0007300842944999961 -0.266962477085186 2.5305913379884188 -2.3665309152170573 -0.055327379960424937 -0.36298079583454618 -0.55166474705293855 0.90304644393691103 1.6165490719010247 0.93725633141807996 -1.7205094370712397 0.060670859243279959 -3.2883862713719667;1.677037454180657 4.1284010882915805 -2.060763261914027 -2.0517913974415558 -0.11450489210266995 -0.14123568407647086 -2.2038580505432415 -2.6521899869086436 0.19595252046248357 0.10061785485743202 -0.275205931149413 -4.2571163588718077 -0.33824967891895347 2.712024590698038 -0.91355701868998129 -0.16084490324789624 -0.094536488124634027 0.15223886419403343 -1.0203526628820057 -0.87381445814080727 0.12793249104464083 0.22054808514294091 0.29126081609003823 -2.782925109082504 0.087329243834499318 0.33767640939477955 0.021144847708893352 -1.0432018366830917 -0.051365811755619627 -0.58036626109967726 -0.016835113839358984 -2.1207568672066239 -0.32263551361765058 2.0447150301271715;-2.8630963734865191 -1.2408320656750034 1.11538595790315 3.2898514324700727 0.96417205876836487 -0.015426848956121043 3.9909847321387408 0.57758135898504082 -0.22828837723051451 -0.13270899930603589 0.08641469091655124 1.2979908280755725 0.083688103056924118 0.48641285484966018 -0.207872867591365 0.69102592364572812 0.061152511911143875 -0.43045298151195482 -0.3066676593936542 0.0085469018649217514 -0.45972076775841725 -0.23652104827167711 -0.29392510034867259 0.77496004379796479 -0.13510639607144334 -0.43545079593935543 -0.021194465421751799 0.28920008526315155 -0.94675834400469372 0.52166812975248067 -1.0309595573988415 -0.4884866764970171 0.33537043002164429 -1.4300132294648742;3.6767528210996709 0.62973304495451854 -0.7665861697501839 -4.0788404787582033 -0.9619426171073906 0.2563904526449779 -3.9499764810315923 -2.0138043794285414 0.31020062933444731 -0.080978010211944451 -0.085034591401430631 -1.1376461424683431 -0.042344269674911554 -0.62224131245554648 0.26624480635878617 -0.53611807680703794 0.31011483907023046 0.44958054738974901 0.44269143754666207 -0.13547800436712237 0.55293079183052818 -0.056752950653515488 0.28506606423006048 -2.129029872368581 0.12581587785113357 -0.15466429467794912 1.6506942721131372 -0.1426385271250126 11.236730238726658 -0.60321905476968396 12.472950572398382 0.4960296190013197 -0.47703285737210516 0.66977418138549705;5.890751728097702 0.025300852809372398 -3.3107545113043568 -6.3683918467189313 0.099833921601750697 -0.3989354280399357 1.4109648697658648 9.7973414062282576 -0.12847080487406376 0.39323857784876637 0.035916602902897214 0.61770053506796652 0.064863064593874156 -0.32429256898559622 -0.099623236646619776 0.36122528605380244 0.16340177585816723 -0.013948869318158818 -0.10005937504621482 -0.56562058041677843 -0.054565431302011615 -0.13697744984795113 -0.013584023383690844 9.1137515674949583 -0.35186291525520585 0.12627384804435629 -0.23267475264587154 -0.85649273190894792 -8.2683674430317566 -0.14815758647838403 -8.969362364673847 0.22204331203707753 -0.059022988781527813 3.420906040205169;0.51612761386050454 -0.13946158911744372 -0.77654856197468447 -0.53433837012965202 -0.11457594691058282 -0.0068099501136558733 -1.7000064349424449 0.16916660996113675 0.015242880964061536 -0.019457813904047883 0.077398853699804523 0.16468068652304693 0.17030544569377432 0.12040658850945216 -0.036123937767544044 0.011623175560453431 -0.10507499640706155 -0.015672078546603564 -0.03462704851923163 0.19210818157959039 -0.19105693097954565 0.060817571299405744 0.010335736323950555 0.15406785136005682 -0.24281340164382301 0.038589633981705146 -0.10234744973893695 0.18468687046136176 -0.10945721712829576 0.12755179904425137 -0.12908431134141476 -0.1094607970160201 0.013041439495890502 0.70146424614946756;0.93314324335336651 -0.66744428400143663 2.4891446732395721 -1.0257045739989012 0.10335998315280198 -0.11490252797707134 1.7333780275919188 0.55251644044314974 0.077201990430621495 0.078982835064030851 0.15766428418533171 0.74698187964960916 0.033725345367997421 0.73987840753222411 -0.088024920298122755 -0.32438863825804126 -0.04479886133690425 -0.081305615409384593 -0.11846157904083447 0.57171218010969249 0.01763502401474026 0.011199418993175827 0.088034464849413241 0.53726359221287368 0.23751565157357282 0.1042903220020782 -0.079298947826953223 0.51651676825729775 0.85459377020369465 0.26313329868740948 0.88240736402638764 -0.64520913455270867 -0.059804148629075383 -2.0534641083810912;-0.087946301709829672 0.62055421178481329 -1.6258116068384127 0.012383721232809519 -0.0016436729429278863 0.085759902458176371 -0.62269425290583147 -1.0069801291522207 0.020621128874977291 -0.23456501483040657 0.046651284008093881 -0.65622090396775157 -0.0081416258823432154 -0.46030941978813478 0.036851890159800706 0.034912403082586391 0.041190481853987007 0.0034244328322643614 0.08933593858177985 0.36906185249847573 -0.43476516460694675 -0.025134432724672293 0.02412110546530806 -0.91292530796291071 -0.16301971970093321 0.053409733475324669 0.080354148513769874 0.52148745634999827 -0.25022333940653829 0.25343025400555286 -0.25396418511867502 0.42614624152800579 -0.029288156453921181 1.5196069824457188];
  
  % Output 1
  y1_step1_ymin = -1;
  y1_step1_gain = [2;2;2;2;2;2;2;2;2;2;2];
  y1_step1_xoffset = [0;0;0;0;0;0;0;0;0;0;0];
  
  % ===== SIMULATION ========
  
  % Dimensions
  Q = size(x1,2); % samples
  
  % Input 1
  xp1 = mapminmax_apply(x1,x1_step1_gain,x1_step1_xoffset,x1_step1_ymin);
  
  % Layer 1
  a1 = tansig_apply(repmat(b1,1,Q) + IW1_1*xp1);
  
  % Layer 2
  a2 = repmat(b2,1,Q) + LW2_1*a1;
  
  % Output 1
  y1 = mapminmax_reverse(a2,y1_step1_gain,y1_step1_xoffset,y1_step1_ymin);
end

% ===== MODULE FUNCTIONS ========

% Map Minimum and Maximum Input Processing Function
function y = mapminmax_apply(x,settings_gain,settings_xoffset,settings_ymin)
  y = bsxfun(@minus,x,settings_xoffset);
  y = bsxfun(@times,y,settings_gain);
  y = bsxfun(@plus,y,settings_ymin);
end

% Sigmoid Symmetric Transfer Function
function a = tansig_apply(n)
  a = 2 ./ (1 + exp(-2*n)) - 1;
end

% Map Minimum and Maximum Output Reverse-Processing Function
function x = mapminmax_reverse(y,settings_gain,settings_xoffset,settings_ymin)
  x = bsxfun(@minus,y,settings_ymin);
  x = bsxfun(@rdivide,x,settings_gain);
  x = bsxfun(@plus,x,settings_xoffset);
end
